digraph Tree {
node [shape=box] ;
0 [label="X[2] <= 3.5\ngini = 0.421\nsamples = 445\nvalue = [211, 489]"] ;
1 [label="X[1] <= 43.5\ngini = 0.4\nsamples = 425\nvalue = [185, 483]"] ;
0 -> 1 [labeldistance=2.5, labelangle=45, headlabel="True"] ;
2 [label="X[13] <= 0.5\ngini = 0.375\nsamples = 403\nvalue = [156, 468]"] ;
1 -> 2 ;
3 [label="X[4] <= 9730.5\ngini = 0.484\nsamples = 46\nvalue = [25, 36]"] ;
2 -> 3 ;
4 [label="X[4] <= 2781.5\ngini = 0.471\nsamples = 44\nvalue = [22, 36]"] ;
3 -> 4 ;
5 [label="X[12] <= 44.5\ngini = 0.497\nsamples = 29\nvalue = [17, 20]"] ;
4 -> 5 ;
6 [label="X[2] <= 1.5\ngini = 0.485\nsamples = 22\nvalue = [17, 12]"] ;
5 -> 6 ;
7 [label="X[12] <= 29.0\ngini = 0.165\nsamples = 8\nvalue = [10, 1]"] ;
6 -> 7 ;
8 [label="gini = 0.0\nsamples = 1\nvalue = [0, 1]"] ;
7 -> 8 ;
9 [label="gini = 0.0\nsamples = 7\nvalue = [10, 0]"] ;
7 -> 9 ;
10 [label="X[18] <= 0.5\ngini = 0.475\nsamples = 14\nvalue = [7, 11]"] ;
6 -> 10 ;
11 [label="X[1] <= 16.5\ngini = 0.484\nsamples = 13\nvalue = [7, 10]"] ;
10 -> 11 ;
12 [label="X[4] <= 1200.0\ngini = 0.408\nsamples = 11\nvalue = [4, 10]"] ;
11 -> 12 ;
13 [label="X[1] <= 9.0\ngini = 0.49\nsamples = 5\nvalue = [4, 3]"] ;
12 -> 13 ;
14 [label="gini = 0.0\nsamples = 2\nvalue = [0, 2]"] ;
13 -> 14 ;
15 [label="X[9] <= 1.5\ngini = 0.32\nsamples = 3\nvalue = [4, 1]"] ;
13 -> 15 ;
16 [label="gini = 0.0\nsamples = 1\nvalue = [0, 1]"] ;
15 -> 16 ;
17 [label="gini = 0.0\nsamples = 2\nvalue = [4, 0]"] ;
15 -> 17 ;
18 [label="gini = 0.0\nsamples = 6\nvalue = [0, 7]"] ;
12 -> 18 ;
19 [label="gini = 0.0\nsamples = 2\nvalue = [3, 0]"] ;
11 -> 19 ;
20 [label="gini = 0.0\nsamples = 1\nvalue = [0, 1]"] ;
10 -> 20 ;
21 [label="gini = 0.0\nsamples = 7\nvalue = [0, 8]"] ;
5 -> 21 ;
22 [label="X[17] <= 1.5\ngini = 0.363\nsamples = 15\nvalue = [5, 16]"] ;
4 -> 22 ;
23 [label="X[16] <= 2.5\ngini = 0.208\nsamples = 11\nvalue = [2, 15]"] ;
22 -> 23 ;
24 [label="X[12] <= 26.0\ngini = 0.375\nsamples = 6\nvalue = [2, 6]"] ;
23 -> 24 ;
25 [label="gini = 0.0\nsamples = 1\nvalue = [2, 0]"] ;
24 -> 25 ;
26 [label="gini = 0.0\nsamples = 5\nvalue = [0, 6]"] ;
24 -> 26 ;
27 [label="gini = 0.0\nsamples = 5\nvalue = [0, 9]"] ;
23 -> 27 ;
28 [label="X[11] <= 1.5\ngini = 0.375\nsamples = 4\nvalue = [3, 1]"] ;
22 -> 28 ;
29 [label="gini = 0.0\nsamples = 3\nvalue = [3, 0]"] ;
28 -> 29 ;
30 [label="gini = 0.0\nsamples = 1\nvalue = [0, 1]"] ;
28 -> 30 ;
31 [label="gini = 0.0\nsamples = 2\nvalue = [3, 0]"] ;
3 -> 31 ;
32 [label="X[4] <= 11496.0\ngini = 0.357\nsamples = 357\nvalue = [131, 432]"] ;
2 -> 32 ;
33 [label="X[0] <= 1.5\ngini = 0.345\nsamples = 351\nvalue = [123, 431]"] ;
32 -> 33 ;
34 [label="X[16] <= 2.5\ngini = 0.223\nsamples = 233\nvalue = [49, 334]"] ;
33 -> 34 ;
35 [label="X[1] <= 11.0\ngini = 0.341\nsamples = 71\nvalue = [24, 86]"] ;
34 -> 35 ;
36 [label="X[9] <= 1.5\ngini = 0.054\nsamples = 20\nvalue = [1, 35]"] ;
35 -> 36 ;
37 [label="X[12] <= 35.5\ngini = 0.32\nsamples = 3\nvalue = [1, 4]"] ;
36 -> 37 ;
38 [label="gini = 0.0\nsamples = 1\nvalue = [1, 0]"] ;
37 -> 38 ;
39 [label="gini = 0.0\nsamples = 2\nvalue = [0, 4]"] ;
37 -> 39 ;
40 [label="gini = 0.0\nsamples = 17\nvalue = [0, 31]"] ;
36 -> 40 ;
41 [label="X[3] <= 3.5\ngini = 0.428\nsamples = 51\nvalue = [23, 51]"] ;
35 -> 41 ;
42 [label="X[3] <= 1.5\ngini = 0.332\nsamples = 27\nvalue = [8, 30]"] ;
41 -> 42 ;
43 [label="X[0] <= 0.5\ngini = 0.475\nsamples = 12\nvalue = [7, 11]"] ;
42 -> 43 ;
44 [label="gini = 0.0\nsamples = 4\nvalue = [0, 8]"] ;
43 -> 44 ;
45 [label="X[4] <= 1210.5\ngini = 0.42\nsamples = 8\nvalue = [7, 3]"] ;
43 -> 45 ;
46 [label="gini = 0.0\nsamples = 2\nvalue = [0, 2]"] ;
45 -> 46 ;
47 [label="X[10] <= 2.5\ngini = 0.219\nsamples = 6\nvalue = [7, 1]"] ;
45 -> 47 ;
48 [label="gini = 0.0\nsamples = 3\nvalue = [4, 0]"] ;
47 -> 48 ;
49 [label="X[18] <= 0.5\ngini = 0.375\nsamples = 3\nvalue = [3, 1]"] ;
47 -> 49 ;
50 [label="gini = 0.0\nsamples = 1\nvalue = [0, 1]"] ;
49 -> 50 ;
51 [label="gini = 0.0\nsamples = 2\nvalue = [3, 0]"] ;
49 -> 51 ;
52 [label="X[15] <= 2.5\ngini = 0.095\nsamples = 15\nvalue = [1, 19]"] ;
42 -> 52 ;
53 [label="gini = 0.0\nsamples = 13\nvalue = [0, 17]"] ;
52 -> 53 ;
54 [label="X[0] <= 0.5\ngini = 0.444\nsamples = 2\nvalue = [1, 2]"] ;
52 -> 54 ;
55 [label="gini = 0.0\nsamples = 1\nvalue = [1, 0]"] ;
54 -> 55 ;
56 [label="gini = 0.0\nsamples = 1\nvalue = [0, 2]"] ;
54 -> 56 ;
57 [label="X[16] <= 1.0\ngini = 0.486\nsamples = 24\nvalue = [15, 21]"] ;
41 -> 57 ;
58 [label="X[0] <= 0.5\ngini = 0.42\nsamples = 8\nvalue = [7, 3]"] ;
57 -> 58 ;
59 [label="X[12] <= 28.5\ngini = 0.49\nsamples = 5\nvalue = [4, 3]"] ;
58 -> 59 ;
60 [label="gini = 0.0\nsamples = 2\nvalue = [3, 0]"] ;
59 -> 60 ;
61 [label="X[15] <= 1.5\ngini = 0.375\nsamples = 3\nvalue = [1, 3]"] ;
59 -> 61 ;
62 [label="gini = 0.0\nsamples = 1\nvalue = [1, 0]"] ;
61 -> 62 ;
63 [label="gini = 0.0\nsamples = 2\nvalue = [0, 3]"] ;
61 -> 63 ;
64 [label="gini = 0.0\nsamples = 3\nvalue = [3, 0]"] ;
58 -> 64 ;
65 [label="X[0] <= 0.5\ngini = 0.426\nsamples = 16\nvalue = [8, 18]"] ;
57 -> 65 ;
66 [label="gini = 0.0\nsamples = 8\nvalue = [0, 12]"] ;
65 -> 66 ;
67 [label="X[4] <= 2575.5\ngini = 0.49\nsamples = 8\nvalue = [8, 6]"] ;
65 -> 67 ;
68 [label="X[10] <= 3.5\ngini = 0.32\nsamples = 6\nvalue = [8, 2]"] ;
67 -> 68 ;
69 [label="X[1] <= 15.0\ngini = 0.198\nsamples = 5\nvalue = [8, 1]"] ;
68 -> 69 ;
70 [label="gini = 0.0\nsamples = 2\nvalue = [6, 0]"] ;
69 -> 70 ;
71 [label="X[3] <= 6.0\ngini = 0.444\nsamples = 3\nvalue = [2, 1]"] ;
69 -> 71 ;
72 [label="gini = 0.0\nsamples = 1\nvalue = [1, 0]"] ;
71 -> 72 ;
73 [label="X[9] <= 1.5\ngini = 0.5\nsamples = 2\nvalue = [1, 1]"] ;
71 -> 73 ;
74 [label="gini = 0.0\nsamples = 1\nvalue = [0, 1]"] ;
73 -> 74 ;
75 [label="gini = 0.0\nsamples = 1\nvalue = [1, 0]"] ;
73 -> 75 ;
76 [label="gini = 0.0\nsamples = 1\nvalue = [0, 1]"] ;
68 -> 76 ;
77 [label="gini = 0.0\nsamples = 2\nvalue = [0, 4]"] ;
67 -> 77 ;
78 [label="X[12] <= 22.5\ngini = 0.166\nsamples = 162\nvalue = [25, 248]"] ;
34 -> 78 ;
79 [label="X[7] <= 1.5\ngini = 0.495\nsamples = 14\nvalue = [9, 11]"] ;
78 -> 79 ;
80 [label="X[10] <= 1.5\ngini = 0.245\nsamples = 4\nvalue = [1, 6]"] ;
79 -> 80 ;
81 [label="gini = 0.0\nsamples = 1\nvalue = [1, 0]"] ;
80 -> 81 ;
82 [label="gini = 0.0\nsamples = 3\nvalue = [0, 6]"] ;
80 -> 82 ;
83 [label="X[6] <= 0.5\ngini = 0.473\nsamples = 10\nvalue = [8, 5]"] ;
79 -> 83 ;
84 [label="X[12] <= 20.5\ngini = 0.444\nsamples = 5\nvalue = [2, 4]"] ;
83 -> 84 ;
85 [label="gini = 0.0\nsamples = 1\nvalue = [0, 2]"] ;
84 -> 85 ;
86 [label="X[12] <= 21.5\ngini = 0.5\nsamples = 4\nvalue = [2, 2]"] ;
84 -> 86 ;
87 [label="X[5] <= 0.5\ngini = 0.444\nsamples = 3\nvalue = [2, 1]"] ;
86 -> 87 ;
88 [label="gini = 0.0\nsamples = 1\nvalue = [0, 1]"] ;
87 -> 88 ;
89 [label="gini = 0.0\nsamples = 2\nvalue = [2, 0]"] ;
87 -> 89 ;
90 [label="gini = 0.0\nsamples = 1\nvalue = [0, 1]"] ;
86 -> 90 ;
91 [label="X[0] <= 0.5\ngini = 0.245\nsamples = 5\nvalue = [6, 1]"] ;
83 -> 91 ;
92 [label="gini = 0.0\nsamples = 2\nvalue = [3, 0]"] ;
91 -> 92 ;
93 [label="X[4] <= 2529.5\ngini = 0.375\nsamples = 3\nvalue = [3, 1]"] ;
91 -> 93 ;
94 [label="X[12] <= 21.0\ngini = 0.5\nsamples = 2\nvalue = [1, 1]"] ;
93 -> 94 ;
95 [label="gini = 0.0\nsamples = 1\nvalue = [0, 1]"] ;
94 -> 95 ;
96 [label="gini = 0.0\nsamples = 1\nvalue = [1, 0]"] ;
94 -> 96 ;
97 [label="gini = 0.0\nsamples = 1\nvalue = [2, 0]"] ;
93 -> 97 ;
98 [label="X[10] <= 3.5\ngini = 0.118\nsamples = 148\nvalue = [16, 237]"] ;
78 -> 98 ;
99 [label="X[1] <= 25.0\ngini = 0.088\nsamples = 84\nvalue = [7, 144]"] ;
98 -> 99 ;
100 [label="X[4] <= 660.5\ngini = 0.108\nsamples = 71\nvalue = [7, 115]"] ;
99 -> 100 ;
101 [label="X[8] <= 1.5\ngini = 0.5\nsamples = 2\nvalue = [1, 1]"] ;
100 -> 101 ;
102 [label="gini = 0.0\nsamples = 1\nvalue = [0, 1]"] ;
101 -> 102 ;
103 [label="gini = 0.0\nsamples = 1\nvalue = [1, 0]"] ;
101 -> 103 ;
104 [label="X[2] <= 1.5\ngini = 0.095\nsamples = 69\nvalue = [6, 114]"] ;
100 -> 104 ;
105 [label="gini = 0.0\nsamples = 25\nvalue = [0, 50]"] ;
104 -> 105 ;
106 [label="X[7] <= 1.5\ngini = 0.157\nsamples = 44\nvalue = [6, 64]"] ;
104 -> 106 ;
107 [label="X[10] <= 1.5\ngini = 0.298\nsamples = 8\nvalue = [2, 9]"] ;
106 -> 107 ;
108 [label="X[9] <= 1.5\ngini = 0.444\nsamples = 3\nvalue = [2, 1]"] ;
107 -> 108 ;
109 [label="gini = 0.0\nsamples = 1\nvalue = [0, 1]"] ;
108 -> 109 ;
110 [label="gini = 0.0\nsamples = 2\nvalue = [2, 0]"] ;
108 -> 110 ;
111 [label="gini = 0.0\nsamples = 5\nvalue = [0, 8]"] ;
107 -> 111 ;
112 [label="X[1] <= 16.5\ngini = 0.126\nsamples = 36\nvalue = [4, 55]"] ;
106 -> 112 ;
113 [label="gini = 0.0\nsamples = 16\nvalue = [0, 33]"] ;
112 -> 113 ;
114 [label="X[3] <= 6.0\ngini = 0.26\nsamples = 20\nvalue = [4, 22]"] ;
112 -> 114 ;
115 [label="X[3] <= 4.0\ngini = 0.346\nsamples = 13\nvalue = [4, 14]"] ;
114 -> 115 ;
116 [label="X[6] <= 0.5\ngini = 0.291\nsamples = 12\nvalue = [3, 14]"] ;
115 -> 116 ;
117 [label="X[8] <= 2.5\ngini = 0.49\nsamples = 5\nvalue = [3, 4]"] ;
116 -> 117 ;
118 [label="gini = 0.0\nsamples = 2\nvalue = [3, 0]"] ;
117 -> 118 ;
119 [label="gini = 0.0\nsamples = 3\nvalue = [0, 4]"] ;
117 -> 119 ;
120 [label="gini = 0.0\nsamples = 7\nvalue = [0, 10]"] ;
116 -> 120 ;
121 [label="gini = 0.0\nsamples = 1\nvalue = [1, 0]"] ;
115 -> 121 ;
122 [label="gini = 0.0\nsamples = 7\nvalue = [0, 8]"] ;
114 -> 122 ;
123 [label="gini = 0.0\nsamples = 13\nvalue = [0, 29]"] ;
99 -> 123 ;
124 [label="X[1] <= 16.5\ngini = 0.161\nsamples = 64\nvalue = [9, 93]"] ;
98 -> 124 ;
125 [label="gini = 0.0\nsamples = 24\nvalue = [0, 38]"] ;
124 -> 125 ;
126 [label="X[12] <= 23.5\ngini = 0.242\nsamples = 40\nvalue = [9, 55]"] ;
124 -> 126 ;
127 [label="gini = 0.0\nsamples = 1\nvalue = [2, 0]"] ;
126 -> 127 ;
128 [label="X[2] <= 1.5\ngini = 0.2\nsamples = 39\nvalue = [7, 55]"] ;
126 -> 128 ;
129 [label="X[0] <= 0.5\ngini = 0.077\nsamples = 15\nvalue = [1, 24]"] ;
128 -> 129 ;
130 [label="gini = 0.0\nsamples = 11\nvalue = [0, 19]"] ;
129 -> 130 ;
131 [label="X[4] <= 2136.0\ngini = 0.278\nsamples = 4\nvalue = [1, 5]"] ;
129 -> 131 ;
132 [label="gini = 0.0\nsamples = 1\nvalue = [1, 0]"] ;
131 -> 132 ;
133 [label="gini = 0.0\nsamples = 3\nvalue = [0, 5]"] ;
131 -> 133 ;
134 [label="X[13] <= 1.5\ngini = 0.272\nsamples = 24\nvalue = [6, 31]"] ;
128 -> 134 ;
135 [label="X[0] <= 0.5\ngini = 0.202\nsamples = 23\nvalue = [4, 31]"] ;
134 -> 135 ;
136 [label="X[6] <= 1.5\ngini = 0.137\nsamples = 16\nvalue = [2, 25]"] ;
135 -> 136 ;
137 [label="gini = 0.0\nsamples = 8\nvalue = [0, 16]"] ;
136 -> 137 ;
138 [label="X[4] <= 2960.0\ngini = 0.298\nsamples = 8\nvalue = [2, 9]"] ;
136 -> 138 ;
139 [label="gini = 0.0\nsamples = 5\nvalue = [0, 8]"] ;
138 -> 139 ;
140 [label="X[8] <= 1.5\ngini = 0.444\nsamples = 3\nvalue = [2, 1]"] ;
138 -> 140 ;
141 [label="gini = 0.0\nsamples = 1\nvalue = [0, 1]"] ;
140 -> 141 ;
142 [label="gini = 0.0\nsamples = 2\nvalue = [2, 0]"] ;
140 -> 142 ;
143 [label="X[9] <= 1.0\ngini = 0.375\nsamples = 7\nvalue = [2, 6]"] ;
135 -> 143 ;
144 [label="gini = 0.0\nsamples = 1\nvalue = [1, 0]"] ;
143 -> 144 ;
145 [label="X[12] <= 29.0\ngini = 0.245\nsamples = 6\nvalue = [1, 6]"] ;
143 -> 145 ;
146 [label="X[12] <= 26.5\ngini = 0.5\nsamples = 2\nvalue = [1, 1]"] ;
145 -> 146 ;
147 [label="gini = 0.0\nsamples = 1\nvalue = [0, 1]"] ;
146 -> 147 ;
148 [label="gini = 0.0\nsamples = 1\nvalue = [1, 0]"] ;
146 -> 148 ;
149 [label="gini = 0.0\nsamples = 4\nvalue = [0, 5]"] ;
145 -> 149 ;
150 [label="gini = 0.0\nsamples = 1\nvalue = [2, 0]"] ;
134 -> 150 ;
151 [label="X[2] <= 0.5\ngini = 0.491\nsamples = 118\nvalue = [74, 97]"] ;
33 -> 151 ;
152 [label="X[13] <= 1.5\ngini = 0.278\nsamples = 4\nvalue = [5, 1]"] ;
151 -> 152 ;
153 [label="gini = 0.0\nsamples = 3\nvalue = [5, 0]"] ;
152 -> 153 ;
154 [label="gini = 0.0\nsamples = 1\nvalue = [0, 1]"] ;
152 -> 154 ;
155 [label="X[6] <= 2.5\ngini = 0.487\nsamples = 114\nvalue = [69, 96]"] ;
151 -> 155 ;
156 [label="X[12] <= 35.0\ngini = 0.497\nsamples = 76\nvalue = [50, 58]"] ;
155 -> 156 ;
157 [label="X[7] <= 1.5\ngini = 0.489\nsamples = 50\nvalue = [43, 32]"] ;
156 -> 157 ;
158 [label="gini = 0.0\nsamples = 4\nvalue = [0, 7]"] ;
157 -> 158 ;
159 [label="X[4] <= 1053.5\ngini = 0.465\nsamples = 46\nvalue = [43, 25]"] ;
157 -> 159 ;
160 [label="gini = 0.0\nsamples = 6\nvalue = [12, 0]"] ;
159 -> 160 ;
161 [label="X[9] <= 1.5\ngini = 0.494\nsamples = 40\nvalue = [31, 25]"] ;
159 -> 161 ;
162 [label="X[12] <= 23.5\ngini = 0.469\nsamples = 8\nvalue = [3, 5]"] ;
161 -> 162 ;
163 [label="gini = 0.0\nsamples = 1\nvalue = [1, 0]"] ;
162 -> 163 ;
164 [label="X[4] <= 2815.5\ngini = 0.408\nsamples = 7\nvalue = [2, 5]"] ;
162 -> 164 ;
165 [label="gini = 0.0\nsamples = 4\nvalue = [0, 4]"] ;
164 -> 165 ;
166 [label="X[12] <= 27.0\ngini = 0.444\nsamples = 3\nvalue = [2, 1]"] ;
164 -> 166 ;
167 [label="gini = 0.0\nsamples = 1\nvalue = [0, 1]"] ;
166 -> 167 ;
168 [label="gini = 0.0\nsamples = 2\nvalue = [2, 0]"] ;
166 -> 168 ;
169 [label="X[8] <= 0.5\ngini = 0.486\nsamples = 32\nvalue = [28, 20]"] ;
161 -> 169 ;
170 [label="X[11] <= 0.5\ngini = 0.133\nsamples = 11\nvalue = [13, 1]"] ;
169 -> 170 ;
171 [label="gini = 0.0\nsamples = 1\nvalue = [0, 1]"] ;
170 -> 171 ;
172 [label="gini = 0.0\nsamples = 10\nvalue = [13, 0]"] ;
170 -> 172 ;
173 [label="X[1] <= 19.5\ngini = 0.493\nsamples = 21\nvalue = [15, 19]"] ;
169 -> 173 ;
174 [label="X[7] <= 2.5\ngini = 0.26\nsamples = 8\nvalue = [2, 11]"] ;
173 -> 174 ;
175 [label="gini = 0.0\nsamples = 1\nvalue = [1, 0]"] ;
174 -> 175 ;
176 [label="X[16] <= 1.0\ngini = 0.153\nsamples = 7\nvalue = [1, 11]"] ;
174 -> 176 ;
177 [label="X[4] <= 1835.5\ngini = 0.444\nsamples = 2\nvalue = [1, 2]"] ;
176 -> 177 ;
178 [label="gini = 0.0\nsamples = 1\nvalue = [1, 0]"] ;
177 -> 178 ;
179 [label="gini = 0.0\nsamples = 1\nvalue = [0, 2]"] ;
177 -> 179 ;
180 [label="gini = 0.0\nsamples = 5\nvalue = [0, 9]"] ;
176 -> 180 ;
181 [label="X[10] <= 2.5\ngini = 0.472\nsamples = 13\nvalue = [13, 8]"] ;
173 -> 181 ;
182 [label="X[16] <= 2.5\ngini = 0.397\nsamples = 8\nvalue = [3, 8]"] ;
181 -> 182 ;
183 [label="gini = 0.0\nsamples = 2\nvalue = [0, 5]"] ;
182 -> 183 ;
184 [label="X[3] <= 6.0\ngini = 0.5\nsamples = 6\nvalue = [3, 3]"] ;
182 -> 184 ;
185 [label="X[5] <= 2.0\ngini = 0.375\nsamples = 4\nvalue = [3, 1]"] ;
184 -> 185 ;
186 [label="gini = 0.0\nsamples = 1\nvalue = [0, 1]"] ;
185 -> 186 ;
187 [label="gini = 0.0\nsamples = 3\nvalue = [3, 0]"] ;
185 -> 187 ;
188 [label="gini = 0.0\nsamples = 2\nvalue = [0, 2]"] ;
184 -> 188 ;
189 [label="gini = 0.0\nsamples = 5\nvalue = [10, 0]"] ;
181 -> 189 ;
190 [label="X[16] <= 1.0\ngini = 0.334\nsamples = 26\nvalue = [7, 26]"] ;
156 -> 190 ;
191 [label="gini = 0.0\nsamples = 1\nvalue = [1, 0]"] ;
190 -> 191 ;
192 [label="X[0] <= 2.5\ngini = 0.305\nsamples = 25\nvalue = [6, 26]"] ;
190 -> 192 ;
193 [label="X[2] <= 2.0\ngini = 0.386\nsamples = 19\nvalue = [6, 17]"] ;
192 -> 193 ;
194 [label="gini = 0.0\nsamples = 8\nvalue = [0, 8]"] ;
193 -> 194 ;
195 [label="X[10] <= 2.5\ngini = 0.48\nsamples = 11\nvalue = [6, 9]"] ;
193 -> 195 ;
196 [label="X[3] <= 3.0\ngini = 0.278\nsamples = 4\nvalue = [1, 5]"] ;
195 -> 196 ;
197 [label="gini = 0.0\nsamples = 1\nvalue = [1, 0]"] ;
196 -> 197 ;
198 [label="gini = 0.0\nsamples = 3\nvalue = [0, 5]"] ;
196 -> 198 ;
199 [label="X[8] <= 2.0\ngini = 0.494\nsamples = 7\nvalue = [5, 4]"] ;
195 -> 199 ;
200 [label="gini = 0.0\nsamples = 2\nvalue = [3, 0]"] ;
199 -> 200 ;
201 [label="X[16] <= 2.5\ngini = 0.444\nsamples = 5\nvalue = [2, 4]"] ;
199 -> 201 ;
202 [label="gini = 0.0\nsamples = 1\nvalue = [1, 0]"] ;
201 -> 202 ;
203 [label="X[6] <= 0.5\ngini = 0.32\nsamples = 4\nvalue = [1, 4]"] ;
201 -> 203 ;
204 [label="X[14] <= 1.5\ngini = 0.5\nsamples = 2\nvalue = [1, 1]"] ;
203 -> 204 ;
205 [label="gini = 0.0\nsamples = 1\nvalue = [1, 0]"] ;
204 -> 205 ;
206 [label="gini = 0.0\nsamples = 1\nvalue = [0, 1]"] ;
204 -> 206 ;
207 [label="gini = 0.0\nsamples = 2\nvalue = [0, 3]"] ;
203 -> 207 ;
208 [label="gini = 0.0\nsamples = 6\nvalue = [0, 9]"] ;
192 -> 208 ;
209 [label="X[4] <= 805.0\ngini = 0.444\nsamples = 38\nvalue = [19, 38]"] ;
155 -> 209 ;
210 [label="gini = 0.0\nsamples = 3\nvalue = [5, 0]"] ;
209 -> 210 ;
211 [label="X[18] <= 0.5\ngini = 0.393\nsamples = 35\nvalue = [14, 38]"] ;
209 -> 211 ;
212 [label="X[2] <= 2.0\ngini = 0.444\nsamples = 19\nvalue = [10, 20]"] ;
211 -> 212 ;
213 [label="X[16] <= 2.5\ngini = 0.484\nsamples = 9\nvalue = [7, 10]"] ;
212 -> 213 ;
214 [label="X[4] <= 2296.5\ngini = 0.278\nsamples = 3\nvalue = [5, 1]"] ;
213 -> 214 ;
215 [label="gini = 0.0\nsamples = 2\nvalue = [5, 0]"] ;
214 -> 215 ;
216 [label="gini = 0.0\nsamples = 1\nvalue = [0, 1]"] ;
214 -> 216 ;
217 [label="X[1] <= 16.0\ngini = 0.298\nsamples = 6\nvalue = [2, 9]"] ;
213 -> 217 ;
218 [label="X[3] <= 3.5\ngini = 0.48\nsamples = 3\nvalue = [2, 3]"] ;
217 -> 218 ;
219 [label="gini = 0.0\nsamples = 2\nvalue = [0, 3]"] ;
218 -> 219 ;
220 [label="gini = 0.0\nsamples = 1\nvalue = [2, 0]"] ;
218 -> 220 ;
221 [label="gini = 0.0\nsamples = 3\nvalue = [0, 6]"] ;
217 -> 221 ;
222 [label="X[3] <= 6.0\ngini = 0.355\nsamples = 10\nvalue = [3, 10]"] ;
212 -> 222 ;
223 [label="X[7] <= 2.5\ngini = 0.5\nsamples = 6\nvalue = [3, 3]"] ;
222 -> 223 ;
224 [label="gini = 0.0\nsamples = 2\nvalue = [0, 2]"] ;
223 -> 224 ;
225 [label="X[16] <= 1.5\ngini = 0.375\nsamples = 4\nvalue = [3, 1]"] ;
223 -> 225 ;
226 [label="gini = 0.0\nsamples = 1\nvalue = [0, 1]"] ;
225 -> 226 ;
227 [label="gini = 0.0\nsamples = 3\nvalue = [3, 0]"] ;
225 -> 227 ;
228 [label="gini = 0.0\nsamples = 4\nvalue = [0, 7]"] ;
222 -> 228 ;
229 [label="X[2] <= 2.0\ngini = 0.298\nsamples = 16\nvalue = [4, 18]"] ;
211 -> 229 ;
230 [label="gini = 0.0\nsamples = 8\nvalue = [0, 14]"] ;
229 -> 230 ;
231 [label="X[16] <= 0.5\ngini = 0.5\nsamples = 8\nvalue = [4, 4]"] ;
229 -> 231 ;
232 [label="X[8] <= 0.5\ngini = 0.32\nsamples = 5\nvalue = [4, 1]"] ;
231 -> 232 ;
233 [label="gini = 0.0\nsamples = 1\nvalue = [0, 1]"] ;
232 -> 233 ;
234 [label="gini = 0.0\nsamples = 4\nvalue = [4, 0]"] ;
232 -> 234 ;
235 [label="gini = 0.0\nsamples = 3\nvalue = [0, 3]"] ;
231 -> 235 ;
236 [label="X[3] <= 4.5\ngini = 0.198\nsamples = 6\nvalue = [8, 1]"] ;
32 -> 236 ;
237 [label="gini = 0.0\nsamples = 4\nvalue = [6, 0]"] ;
236 -> 237 ;
238 [label="X[12] <= 34.5\ngini = 0.444\nsamples = 2\nvalue = [2, 1]"] ;
236 -> 238 ;
239 [label="gini = 0.0\nsamples = 1\nvalue = [0, 1]"] ;
238 -> 239 ;
240 [label="gini = 0.0\nsamples = 1\nvalue = [2, 0]"] ;
238 -> 240 ;
241 [label="X[16] <= 2.5\ngini = 0.449\nsamples = 22\nvalue = [29, 15]"] ;
1 -> 241 ;
242 [label="X[7] <= 3.5\ngini = 0.208\nsamples = 9\nvalue = [15, 2]"] ;
241 -> 242 ;
243 [label="gini = 0.0\nsamples = 3\nvalue = [10, 0]"] ;
242 -> 243 ;
244 [label="X[0] <= 0.5\ngini = 0.408\nsamples = 6\nvalue = [5, 2]"] ;
242 -> 244 ;
245 [label="gini = 0.0\nsamples = 1\nvalue = [0, 1]"] ;
244 -> 245 ;
246 [label="X[10] <= 1.5\ngini = 0.278\nsamples = 5\nvalue = [5, 1]"] ;
244 -> 246 ;
247 [label="gini = 0.0\nsamples = 1\nvalue = [0, 1]"] ;
246 -> 247 ;
248 [label="gini = 0.0\nsamples = 4\nvalue = [5, 0]"] ;
246 -> 248 ;
249 [label="X[9] <= 1.5\ngini = 0.499\nsamples = 13\nvalue = [14, 13]"] ;
241 -> 249 ;
250 [label="gini = 0.0\nsamples = 2\nvalue = [6, 0]"] ;
249 -> 250 ;
251 [label="X[12] <= 40.0\ngini = 0.472\nsamples = 11\nvalue = [8, 13]"] ;
249 -> 251 ;
252 [label="X[3] <= 2.5\ngini = 0.36\nsamples = 9\nvalue = [4, 13]"] ;
251 -> 252 ;
253 [label="gini = 0.0\nsamples = 3\nvalue = [0, 8]"] ;
252 -> 253 ;
254 [label="X[1] <= 66.0\ngini = 0.494\nsamples = 6\nvalue = [4, 5]"] ;
252 -> 254 ;
255 [label="X[4] <= 12947.0\ngini = 0.408\nsamples = 5\nvalue = [2, 5]"] ;
254 -> 255 ;
256 [label="gini = 0.0\nsamples = 4\nvalue = [0, 5]"] ;
255 -> 256 ;
257 [label="gini = 0.0\nsamples = 1\nvalue = [2, 0]"] ;
255 -> 257 ;
258 [label="gini = 0.0\nsamples = 1\nvalue = [2, 0]"] ;
254 -> 258 ;
259 [label="gini = 0.0\nsamples = 2\nvalue = [4, 0]"] ;
251 -> 259 ;
260 [label="X[5] <= 0.5\ngini = 0.305\nsamples = 20\nvalue = [26, 6]"] ;
0 -> 260 [labeldistance=2.5, labelangle=-45, headlabel="False"] ;
261 [label="gini = 0.0\nsamples = 2\nvalue = [0, 2]"] ;
260 -> 261 ;
262 [label="X[3] <= 8.5\ngini = 0.231\nsamples = 18\nvalue = [26, 4]"] ;
260 -> 262 ;
263 [label="X[1] <= 21.0\ngini = 0.133\nsamples = 17\nvalue = [26, 2]"] ;
262 -> 263 ;
264 [label="X[18] <= 0.5\ngini = 0.26\nsamples = 9\nvalue = [11, 2]"] ;
263 -> 264 ;
265 [label="gini = 0.0\nsamples = 7\nvalue = [9, 0]"] ;
264 -> 265 ;
266 [label="X[14] <= 1.5\ngini = 0.5\nsamples = 2\nvalue = [2, 2]"] ;
264 -> 266 ;
267 [label="gini = 0.0\nsamples = 1\nvalue = [0, 2]"] ;
266 -> 267 ;
268 [label="gini = 0.0\nsamples = 1\nvalue = [2, 0]"] ;
266 -> 268 ;
269 [label="gini = 0.0\nsamples = 8\nvalue = [15, 0]"] ;
263 -> 269 ;
270 [label="gini = 0.0\nsamples = 1\nvalue = [0, 2]"] ;
262 -> 270 ;
}